stock_cnn_model/conv2d/kernel:0
(3, 3, 1, 9)
[[[[ 0.23814099 -0.32064214  0.20470166 -0.01523296  0.06025045
    -0.27176642  0.24942693  0.3691996   0.15320434]]

  [[-0.2266034   0.06240292  0.24161206  0.24862453  0.05477561
     0.15891708  0.23854274 -0.2509806  -0.18831061]]

  [[ 0.11333948 -0.24736594  0.29947343  0.10305128 -0.3407702
     0.01796649 -0.21069144  0.0063039   0.19001478]]]


 [[[-0.25545806 -0.07321162 -0.30947953 -0.28520674  0.32456636
     0.05826881 -0.06236959  0.01437379  0.25856042]]

  [[-0.34517258 -0.2017348   0.09650224  0.02174952  0.08553811
     0.25279832 -0.12915969  0.05440868  0.14632821]]

  [[ 0.07358918  0.24891225 -0.08324188  0.05336094 -0.16079997
     0.00187603 -0.13975275 -0.27510202 -0.18181877]]]


 [[[ 0.14189821 -0.20793793  0.15695468 -0.23394847  0.27115467
    -0.13149765  0.31445974 -0.24088524  0.01165623]]

  [[-0.09384767 -0.1594791   0.16934752  0.12545589  0.05483471
     0.1549424  -0.01356445 -0.15004198  0.15770976]]

  [[ 0.00272647 -0.22793163 -0.20036583  0.14023104 -0.25814378
    -0.05249104 -0.09366612  0.33626968 -0.22303966]]]]
stock_cnn_model/conv2d/bias:0
(9,)
[ 0.01938446  0.02927278  0.01947556 -0.02421174  0.01012307 -0.01793667
  0.00626908  0.00872593  0.00815091]
stock_cnn_model/batch_normalization/gamma:0
(9,)
[1.1175039 1.0755529 1.0482458 1.0732648 1.1069577 1.1077684 1.1464003
 1.1342849 1.1150826]
stock_cnn_model/batch_normalization/beta:0
(9,)
[ 0.01028023  0.00994057 -0.00203235  0.02015647  0.01469118 -0.01207208
 -0.00514479 -0.01302412 -0.01329373]
stock_cnn_model/dense/kernel:0
(225, 128)
[[ 0.0292391   0.06281614 -0.0152572  ... -0.02225961  0.11167334
  -0.02965694]
 [ 0.08041263  0.11283474  0.04026194 ...  0.0534277   0.14301164
  -0.00818373]
 [-0.10688483 -0.03429881  0.08974475 ...  0.10305183  0.11959834
  -0.05056392]
 ...
 [ 0.09389252  0.14040248  0.1406943  ...  0.01426047 -0.06383649
   0.13831548]
 [ 0.04242858  0.05738852 -0.08981115 ... -0.02929202  0.04289384
   0.05755443]
 [ 0.00811038 -0.1393997   0.08505636 ...  0.09313799  0.07629301
  -0.04237267]]
stock_cnn_model/dense/bias:0
(128,)
[ 0.00447579  0.00626368 -0.00296614 -0.01595318 -0.0021323   0.01720778
 -0.01475312  0.05851924  0.00150478 -0.00140202 -0.01360574 -0.00468673
 -0.03042902  0.02083812 -0.0174922  -0.00827303  0.02052702  0.02076539
 -0.01574279  0.0136712  -0.00675573  0.01680357  0.01494252  0.01894756
 -0.0081395   0.00215004  0.01980202 -0.02047794 -0.00342883  0.0023702
  0.00717575 -0.02624805  0.01607408 -0.01370641  0.03894834 -0.00997042
  0.00728718  0.00132344  0.03143393  0.01521113 -0.01193496  0.01722932
 -0.00910417  0.04087597  0.03071154 -0.01798846  0.0095682  -0.01725969
  0.01420922 -0.0102821  -0.01888856  0.00057073  0.02000061 -0.02143813
 -0.01508278  0.05570932  0.03004891  0.0282262   0.01959381 -0.00991971
  0.00670594  0.03235272  0.0229686  -0.01529303 -0.01806707 -0.01778645
  0.03985678  0.01764247  0.05735908  0.00388899 -0.00658335  0.02060439
 -0.01144176  0.00681366 -0.00758811 -0.01800735 -0.02127819 -0.01114431
 -0.00198763 -0.01608735  0.03385077 -0.00753412 -0.01213851 -0.01592578
 -0.0153908   0.03013664  0.00178898 -0.01208619  0.01256741  0.03536515
 -0.03779769 -0.00783974 -0.01307418  0.01838462  0.01367744 -0.00921146
  0.01577244  0.02975458  0.00194364  0.00171479 -0.02103693 -0.01130646
  0.05573734  0.03165481  0.01364606 -0.00834079  0.01118624 -0.00341413
  0.03104874  0.01993643  0.02291216  0.02706229  0.00357079  0.03077461
  0.0179091  -0.01012559 -0.00793079  0.04574563 -0.01904617 -0.01110618
 -0.00515509  0.03437271  0.02343132 -0.01604787  0.02374367 -0.01048156
  0.01952387  0.04454587]
stock_cnn_model/dense_1/kernel:0
(128, 4)
[[ 0.04469858  0.22208187 -0.19557828 -0.03114607]
 [ 0.00667187  0.15110849 -0.0164425  -0.19346029]
 [-0.16466445  0.09368312 -0.2280482  -0.13618532]
 [-0.15101305 -0.17157948  0.12752561 -0.04937693]
 [ 0.11627672 -0.17201973  0.1495462   0.00688968]
 [-0.15438825  0.18267284 -0.03271368 -0.01981538]
 [-0.04894038 -0.10763762  0.19947293 -0.02289971]
 [ 0.18195261  0.00942122 -0.21117422 -0.36976746]
 [-0.03325159  0.25940523  0.20274384  0.01877603]
 [ 0.15109026 -0.05641526 -0.23002188  0.15720832]
 [-0.11294963 -0.04322713  0.10012989  0.15364271]
 [ 0.22036332 -0.22178693 -0.20593251  0.00426293]
 [-0.20277749  0.13792945 -0.20027371  0.15141052]
 [ 0.26573488 -0.08922755  0.04926227  0.11630235]
 [-0.1144978  -0.17972265 -0.21658121  0.18245362]
 [-0.06942053  0.257384    0.02821341  0.11625369]
 [ 0.27977479 -0.20509918  0.02052884 -0.27332377]
 [ 0.03562019  0.24440818 -0.25172275  0.03543771]
 [-0.17271739 -0.05172828 -0.07641631  0.0172697 ]
 [ 0.09118423 -0.03617683 -0.16830054  0.15980805]
 [ 0.20617104 -0.15633178  0.17644262 -0.05306516]
 [ 0.06426966 -0.23812251 -0.1758992   0.18513893]
 [ 0.2496589  -0.00869928  0.08723865  0.09486543]
 [ 0.09004092  0.11495988 -0.21771713 -0.0162499 ]
 [ 0.2830143  -0.14101192 -0.07966089  0.09339084]
 [-0.18343788  0.11246447  0.08194268 -0.07312313]
 [ 0.0506562   0.14240669 -0.02364722 -0.26191583]
 [-0.15098788  0.19803427  0.0839246   0.02114602]
 [-0.19526593 -0.13498008 -0.0964856   0.10262539]
 [-0.02902277  0.17891149  0.10569131  0.20306781]
 [-0.29403707  0.11763226 -0.3078467  -0.2778333 ]
 [-0.09472287  0.27568224 -0.20082924 -0.13959229]
 [ 0.24337201 -0.11588027  0.05612752  0.21081552]
 [ 0.03836934 -0.07687885  0.15807211  0.13019203]
 [ 0.11432095  0.07272457 -0.11312164 -0.00994736]
 [ 0.10330369  0.04778716  0.00624523  0.1583129 ]
 [ 0.07685526  0.21776302 -0.1419379  -0.13187724]
 [-0.04821251  0.09510452 -0.19640811 -0.04734223]
 [ 0.16182807  0.13307048  0.10811076 -0.25756514]
 [ 0.27973688 -0.20894592 -0.05574786 -0.10073795]
 [-0.17281808  0.06691723  0.15520266  0.13819967]
 [ 0.04990095  0.08514869 -0.07296803 -0.13581337]
 [-0.01445004 -0.17866161 -0.10738254  0.10425498]
 [ 0.01236511  0.00154382 -0.07775088 -0.312495  ]
 [ 0.13829848  0.08021128 -0.24821036  0.03107515]
 [-0.05836713 -0.01746218  0.11984392  0.1394812 ]
 [ 0.1399993   0.04008842 -0.0713688   0.13360876]
 [-0.09203209 -0.09708991  0.06928315  0.10462977]
 [-0.13851807  0.09396385 -0.16510516 -0.1592801 ]
 [-0.00741696 -0.04690156 -0.08425236  0.15893747]
 [-0.1211896   0.19563286  0.14885439  0.1425966 ]
 [-0.10671333 -0.13139106 -0.23196748  0.0815539 ]
 [ 0.24360082 -0.17806934  0.06855779 -0.10290005]
 [-0.22889042  0.0348132  -0.13401231 -0.01996233]
 [-0.01572859 -0.11208397  0.03251024  0.07049059]
 [ 0.2203468   0.00565452 -0.05744924 -0.1975482 ]
 [ 0.20660236  0.22261564 -0.19953975 -0.11695311]
 [ 0.06109343 -0.00461272 -0.15991178 -0.05080046]
 [-0.12825254  0.26172972  0.06198255 -0.06837966]
 [ 0.02882409  0.10707335  0.05667948  0.18983705]
 [ 0.07762151  0.20121472 -0.04460552 -0.1785752 ]
 [ 0.15834954  0.04421642  0.08407944 -0.28338185]
 [ 0.14756525  0.01107703 -0.08547881  0.1309821 ]
 [-0.07445642 -0.0956388   0.14054967  0.15694872]
 [-0.09849414 -0.20430456  0.03795078 -0.00867737]
 [-0.04244611  0.06453519 -0.13982835  0.02432491]
 [ 0.27573135 -0.21931587 -0.1170115  -0.05243837]
 [-0.2476296   0.31027684 -0.10360554  0.03062752]
 [ 0.31399295 -0.3357653   0.0462749  -0.0822515 ]
 [ 0.06598102 -0.15171948  0.13406876 -0.17480917]
 [-0.2515416   0.06342868 -0.26163033  0.0939682 ]
 [ 0.13285725  0.19761288 -0.05744611 -0.07190451]
 [-0.10031378  0.03036764 -0.04667907  0.19573493]
 [-0.00995218  0.22931622  0.08138304  0.11624282]
 [-0.16903555 -0.03926177 -0.18796115  0.04499023]
 [-0.087183    0.04272978 -0.06888916  0.17661852]
 [ 0.25450644 -0.11843861  0.14997321  0.06380757]
 [ 0.13741058 -0.04848957  0.15795103  0.15502249]
 [-0.18450347  0.16769242 -0.20232648  0.10082781]
 [-0.18273054 -0.11961901 -0.04306439  0.18973081]
 [ 0.21292643  0.2011097   0.02239743 -0.02452985]
 [-0.0991948   0.00534377 -0.13835229 -0.14001125]
 [ 0.06962099  0.03375974  0.1170041   0.09155604]
 [-0.13461247  0.16254002  0.18534976  0.03096784]
 [-0.14266819 -0.16110033  0.15687104  0.07262264]
 [ 0.22873934  0.10596164  0.16248177 -0.071991  ]
 [ 0.10955391  0.16050921 -0.0621995   0.13497943]
 [-0.06518955 -0.14838214  0.16427195 -0.06792154]
 [-0.0930215   0.01694761 -0.21053463 -0.10698353]
 [ 0.22977161  0.09516447  0.02667021 -0.03929036]
 [ 0.2453328  -0.15176508  0.18111818  0.15909141]
 [-0.26190627  0.07224191  0.02253266  0.07365725]
 [-0.18647903  0.09839638  0.05013693 -0.05992576]
 [ 0.30264986 -0.22282404  0.05267374  0.01012492]
 [ 0.05556991 -0.03062249 -0.15540154 -0.00928401]
 [-0.01340251 -0.19467689 -0.1014435   0.10676415]
 [ 0.06374076 -0.13377754 -0.17916574 -0.08495888]
 [ 0.22597143  0.22268781  0.05318154  0.00591474]
 [-0.02235432 -0.17480493 -0.08577546 -0.11074968]
 [-0.2426577   0.2753461   0.00295073 -0.10587346]
 [-0.15579422  0.05605648 -0.05680536  0.17052113]
 [-0.1871538  -0.21595816 -0.15434763  0.1288432 ]
 [ 0.28036585 -0.13844523  0.00171875  0.07637181]
 [ 0.11692318 -0.16836208 -0.10793339 -0.0774213 ]
 [ 0.21310191 -0.22501373  0.11215058  0.04052709]
 [-0.01653067  0.02426548 -0.1465809   0.20846592]
 [ 0.06640604  0.11026667 -0.02381016  0.01457449]
 [-0.06905191  0.0762332   0.23399854  0.17187856]
 [ 0.21914765 -0.16908422 -0.13109966  0.00108278]
 [ 0.1045991   0.21411751  0.00172743 -0.1921629 ]
 [ 0.12030321  0.1106693  -0.22298637 -0.04625297]
 [ 0.01954244  0.07524986 -0.21929973 -0.19641674]
 [-0.02076106  0.07437308  0.0039275  -0.12263452]
 [ 0.24276806  0.08771706 -0.13563868  0.02776668]
 [ 0.14088048  0.15554053 -0.2001207   0.02378711]
 [ 0.11796211 -0.13258457 -0.061219    0.11006111]
 [ 0.00964969 -0.10979734  0.16962062  0.03573939]
 [ 0.28738526 -0.08309797 -0.0526383   0.08559706]
 [-0.19394924  0.07164028 -0.10051343  0.19673595]
 [-0.15994976 -0.05502208  0.08154545  0.11505659]
 [-0.16028142 -0.18619844 -0.22751975 -0.00726647]
 [ 0.24297215 -0.30174592 -0.03262396  0.03080551]
 [ 0.16468038 -0.24088378 -0.07016186  0.04287647]
 [-0.09540305 -0.03049217  0.08864352 -0.096151  ]
 [ 0.19137423 -0.14392816 -0.1275654  -0.21025915]
 [-0.11059725  0.06864884 -0.12161703  0.1362611 ]
 [ 0.16065027 -0.00649088 -0.22242188 -0.23849967]
 [ 0.04394015 -0.03624285 -0.05428927 -0.17390683]]
stock_cnn_model/dense_1/bias:0
(4,)
[ 0.03592693  0.00052153 -0.0223382  -0.03245509]
