stock_model/dense/kernel:0
(15, 128)
[[ 0.18062359 -0.17626233  0.1311629  ... -0.12416071  0.06403776
   0.44718271]
 [ 0.14523597  0.3232775   0.02001648 ... -0.01536757 -0.0549769
   0.4200907 ]
 [ 0.02126268  0.18032512 -0.10334406 ... -0.15469603  0.11464929
   0.16370203]
 ...
 [ 0.13034785  0.10084624  0.10662536 ...  0.04041827  0.064838
   0.14294352]
 [ 0.15880932 -0.00398455 -0.03745264 ...  0.22087996 -0.1054803
   0.28303993]
 [-0.07822864  0.20240542  0.05893447 ...  0.00345837 -0.2143575
   0.28825033]]
stock_model/dense/bias:0
(128,)
[ 3.13106226e-03  1.25766233e-01  0.00000000e+00 -1.35394940e-02
  6.35375232e-02  1.51729388e-02  3.14410359e-01  7.05093192e-03
  6.36543110e-02  0.00000000e+00  5.08213341e-02 -1.04582720e-02
 -1.20224170e-02  2.30128899e-01  2.11513132e-01  2.14136485e-03
 -1.10490546e-02  3.89856510e-02  0.00000000e+00  1.24615930e-01
 -2.72494256e-02 -3.27765904e-02 -2.14567389e-02  3.35954875e-02
  1.58413406e-02 -1.18692685e-02  3.10111910e-01  7.99450129e-02
  2.77468041e-02 -6.62114937e-03  2.43322849e-01  2.07105093e-02
  3.32084931e-02  1.79060211e-04 -1.24820452e-02 -1.29583105e-02
  0.00000000e+00  8.07495117e-02 -2.58126557e-02  1.26969948e-01
 -1.45018855e-02  1.78721026e-01  4.40008603e-02  2.36017272e-01
 -3.26846428e-02 -1.35915410e-02 -5.14527969e-03  8.35555699e-03
  1.60130262e-01  0.00000000e+00 -9.02731437e-03 -3.14776301e-02
 -1.54902786e-03  2.42189225e-02  2.69440245e-02  1.25362903e-01
  9.13352817e-02  1.11718863e-01  2.30225502e-03 -3.13488990e-02
  2.14970097e-01  5.35253063e-02 -2.57883538e-02 -9.82254092e-03
 -5.18631050e-03 -6.95810001e-03  2.64806598e-01 -3.60256881e-02
  6.37066811e-02  1.27474144e-02 -1.78732798e-02  1.39896050e-01
  1.36150969e-02  0.00000000e+00  0.00000000e+00  0.00000000e+00
  9.47514176e-03 -1.99031029e-02 -1.96099542e-02  3.25355232e-01
 -1.56555939e-02 -1.23692006e-02  5.97855262e-02 -2.72024572e-02
  2.56652623e-01  2.06268253e-03  0.00000000e+00 -1.43595329e-02
  3.32264649e-03 -4.19256685e-04 -1.65028889e-02  1.36873141e-01
 -8.12386908e-03  4.59522232e-02 -2.71298531e-02  2.50175241e-02
 -1.15252156e-02  4.75181974e-02  1.36392787e-02 -2.29136068e-02
 -8.29725619e-03 -1.82434674e-02 -1.21969422e-02  5.23167364e-02
 -4.17192876e-02  0.00000000e+00  2.45469064e-01  0.00000000e+00
  5.25264477e-04  3.54787558e-02 -8.88574030e-03 -1.57183986e-02
 -5.11544384e-03  1.24954171e-01  6.87023625e-03  1.34849265e-01
  3.36865149e-03  7.93950185e-02  0.00000000e+00  1.64424613e-01
 -7.00076437e-03  6.20464869e-02  4.48676497e-02 -1.21701350e-02
  9.13736075e-02  2.90547311e-02 -7.62999803e-03  2.68388659e-01]
stock_model/dense_1/kernel:0
(128, 4)
[[ 1.79599374e-04  9.88165382e-04  2.29940022e-04 -1.10317415e-04]
 [ 2.15676613e-04  1.22760236e-01 -6.73784059e-04 -1.30741112e-03]
 [ 4.14678070e-05  1.14033362e-04 -6.35040196e-05  3.76744247e-05]
 [ 1.13920585e-04  3.24951543e-06  1.62307901e-04  1.11039546e-04]
 [ 9.51957481e-04  5.35414787e-04 -5.55625418e-04 -1.18269632e-03]
 [ 3.42441286e-04 -1.06249441e-04  1.35228198e-04 -5.69513213e-05]
 [ 1.89641118e-01  1.61437944e-01 -1.28083928e-02 -1.68660924e-01]
 [-1.83750490e-06 -6.82313912e-05  7.38456074e-05  2.89548392e-04]
 [ 2.40414795e-02  3.84516810e-04 -1.08034804e-03 -2.16313347e-05]
 [-1.34101429e-05  4.48988838e-04 -1.63120159e-04  1.50550215e-04]
 [ 7.90166389e-03  3.66193679e-04 -8.85567279e-04  1.51969216e-04]
 [ 1.14552822e-05 -4.09989807e-05  1.52020904e-04 -1.41469209e-04]
 [-1.27888597e-05 -1.13228947e-04  1.60672789e-05 -1.92142761e-06]
 [ 8.77086520e-02  1.69458076e-01 -8.04480631e-04 -2.04881467e-03]
 [ 1.04579046e-01  1.70516163e-01 -1.27215567e-03 -2.20448058e-03]
 [ 4.47149836e-02  6.79230958e-04  1.04401406e-05 -9.59880781e-05]
 [ 1.77132533e-04 -1.12028101e-04  1.80908741e-04 -2.39535366e-04]
 [-6.18863036e-04  1.42165512e-01 -5.85843052e-04 -1.11714168e-03]
 [ 8.44660026e-05 -2.37435583e-04  1.87758778e-04  1.03029037e-04]
 [-6.85321647e-05  1.53856096e-03 -9.68370470e-04 -6.30058523e-04]
 [ 1.16738345e-04  2.11313636e-06 -2.54452752e-05 -4.17918054e-05]
 [ 1.42167191e-05  1.06021558e-04  1.25843260e-04  9.37317527e-05]
 [ 7.07550425e-05  1.02766062e-04  7.93517538e-05  9.93609137e-06]
 [ 2.66944786e-04  1.94644745e-04 -1.26824714e-04 -1.64876285e-04]
 [-4.22795827e-04  6.81030506e-04 -1.99266011e-04  1.26015744e-04]
 [ 1.73747758e-05 -5.35125873e-05  7.25187638e-05  3.52025323e-04]
 [ 9.99883264e-02  1.20925933e-01 -2.55293748e-03 -1.41462998e-03]
 [-2.68008589e-04  1.21528609e-02 -8.76912905e-04 -1.27430924e-03]
 [ 7.96442619e-04 -2.82536985e-06  3.98564371e-05  2.37725137e-04]
 [-1.17680131e-04  2.42528520e-04 -1.44288206e-04  3.86164611e-05]
 [ 3.37664299e-02  1.01502381e-01 -9.77468714e-02 -1.15891755e-01]
 [ 6.86809644e-02 -7.44729987e-05  1.08799461e-04  1.64117169e-04]
 [-1.13642623e-03  1.77436275e-04 -4.32284578e-05 -1.26844912e-04]
 [ 1.94561639e-04  1.23738238e-04  1.71230568e-05 -2.02541793e-04]
 [-9.74193026e-05 -4.81386742e-05  2.49611767e-04  8.93619290e-05]
 [-4.90514329e-04  1.30730460e-03  2.46543816e-04  5.94445155e-05]
 [ 3.74355295e-05 -6.50532020e-05  1.20320736e-04 -8.56308907e-05]
 [ 5.24738280e-05  3.88736546e-04 -9.66260734e-04 -1.01463869e-04]
 [ 5.45384682e-05 -3.10937117e-04 -3.24549474e-05  1.24784128e-04]
 [ 6.53627664e-02  4.08353982e-04 -7.20847573e-04 -1.60486519e-03]
 [ 8.20270361e-05 -1.79129260e-04  1.15143543e-04 -3.53633404e-05]
 [ 8.96321163e-02  3.72212268e-02 -1.50067545e-03 -1.94739562e-03]
 [ 5.03182299e-02  2.88441748e-04 -7.63173623e-04 -4.41073062e-04]
 [ 1.53330797e-02  5.20820543e-02 -4.30071205e-02 -1.79281353e-03]
 [-7.55932924e-05 -1.91817235e-04 -6.47532142e-05 -1.81666226e-04]
 [-5.82688772e-05  1.21440760e-04  4.91991959e-05 -1.75496316e-05]
 [ 7.22606819e-06 -1.38185162e-04  1.18116266e-04 -6.28463022e-05]
 [ 5.30022371e-04 -2.23579540e-04 -1.52037770e-04  4.84457269e-05]
 [ 4.58414406e-02  5.69210504e-04 -1.29264907e-03 -1.94063282e-03]
 [-1.22759389e-04  1.46015809e-04  1.22092126e-04 -1.50221385e-04]
 [-3.92601796e-04 -3.21687403e-04 -3.16533668e-04 -1.11830581e-04]
 [ 2.36637643e-04 -5.10192986e-05 -1.91938998e-05  8.53808378e-05]
 [ 3.11481621e-04  8.49656572e-05 -4.98824193e-05 -1.79804163e-04]
 [ 4.95296612e-04 -4.31377295e-04 -1.50305772e-04 -3.71915994e-05]
 [-2.66057905e-04 -2.47159565e-04 -2.65363720e-04 -2.62753514e-04]
 [-3.35533055e-04  1.36610210e-01 -5.74114616e-04 -8.65538488e-04]
 [ 9.82511491e-02  3.24936322e-04 -8.23927228e-04 -8.36212246e-04]
 [ 1.87890418e-02  5.77912200e-04 -5.27457509e-04 -9.46889108e-04]
 [ 1.14957627e-04 -1.37559357e-04  2.25335592e-04 -1.80980169e-05]
 [-3.65023589e-05  2.71423487e-05  1.27116407e-04 -1.42079778e-04]
 [ 3.90290953e-02  1.02597347e-03 -2.37834007e-02 -8.31881016e-02]
 [ 5.89016941e-04 -1.01039310e-04 -1.76508154e-04  2.65844665e-06]
 [-1.03320577e-04  1.19932272e-04 -1.10980473e-04 -9.74065188e-05]
 [-1.29344320e-04  1.62257915e-04 -1.49383573e-04 -1.51447923e-04]
 [ 4.45044570e-05  2.75225204e-04  1.36169328e-05  1.73459615e-04]
 [ 1.11978836e-04  3.57116442e-05  1.89384009e-05  1.14014350e-04]
 [ 2.09543496e-01  1.78928480e-01 -5.24028465e-02 -1.01747678e-03]
 [ 3.69014044e-04 -6.30534487e-07 -3.46086963e-05  5.28982491e-06]
 [-2.73146507e-05  2.58986867e-04 -8.37807893e-04 -6.74308336e-04]
 [-1.09953526e-03  1.53039955e-03  3.58213911e-05  1.77496549e-04]
 [-6.23234519e-06  6.94967675e-05  8.43853486e-05  1.04478808e-04]
 [ 1.31042674e-03  1.80058088e-03 -1.06356405e-02 -8.94985977e-04]
 [ 3.07969080e-04  3.42970947e-04 -1.65454519e-04  3.03830366e-05]
 [ 1.95897330e-04  4.47706174e-04 -5.55683509e-05 -3.10057425e-04]
 [ 3.37012607e-04 -3.06472299e-04  3.07700975e-05 -4.14475217e-05]
 [ 1.38730844e-04 -8.57229752e-05  1.29845183e-04  8.97299033e-05]
 [ 3.81935854e-04  3.68125591e-04 -2.89856282e-04  2.27269484e-04]
 [-4.59613257e-05 -1.71130159e-04 -7.71787163e-05  1.35631082e-04]
 [-5.48983226e-05  1.04982071e-04 -2.97180493e-04 -9.44280546e-05]
 [ 2.00648814e-01  1.57484308e-01 -2.26390749e-01 -2.37072650e-02]
 [-7.08487059e-05 -1.61791802e-04 -6.15497993e-06  1.13957256e-04]
 [-3.27993446e-04  2.46524054e-04  2.70703924e-04  2.17179258e-05]
 [ 2.08116428e-04  2.86456721e-04 -7.07703468e-04  1.76353104e-04]
 [-1.47846033e-04 -1.17917240e-04 -6.97918003e-05 -1.91222876e-04]
 [ 8.28454122e-02  1.35728717e-01 -9.18985053e-04 -5.18481340e-03]
 [ 1.97330519e-04  1.38710893e-04 -1.10374625e-04  1.66843543e-04]
 [ 2.51987047e-04  1.72429354e-05  3.48626781e-05 -4.01715166e-04]
 [-4.95980930e-05 -1.86243880e-04 -1.96519220e-04 -2.33418978e-05]
 [-3.65565138e-05  1.18482443e-04  5.73025391e-05  2.68972450e-04]
 [ 1.74913817e-04 -9.14261909e-06 -7.66513695e-05  5.62293280e-07]
 [-7.58573515e-06 -9.86455198e-05 -9.86794912e-05  1.91494066e-04]
 [ 5.24703413e-02  1.88549585e-03 -8.54513259e-04 -1.39386011e-02]
 [-5.70037482e-05  1.69105115e-04  2.94174897e-05 -2.43942923e-05]
 [ 1.63761288e-04  1.27983987e-02 -5.68302872e-04 -2.72773672e-04]
 [ 9.35765274e-05 -3.40370461e-05  5.19248861e-05 -1.21420708e-05]
 [-2.28687495e-04  1.82955270e-03  5.38382010e-05  2.04974436e-04]
 [-8.77272396e-05  7.72877684e-05  6.60246587e-06 -1.09487693e-04]
 [ 3.40342696e-04  5.83560468e-05 -9.51229886e-05 -7.06744177e-05]
 [ 7.34307105e-06 -1.96209570e-04 -7.22251207e-06  9.65123218e-06]
 [-9.84749495e-05 -1.20177552e-04 -8.99048173e-05 -5.82634602e-05]
 [ 3.04659363e-04  2.76955165e-04  2.73258775e-05  6.26986439e-05]
 [-1.73309731e-04  5.86294664e-05 -4.60693191e-05 -3.66647837e-05]
 [ 1.42063596e-04 -6.76886266e-05 -3.76350043e-04 -1.43118741e-04]
 [ 2.16333922e-02  1.95647299e-04 -4.14894836e-04 -1.40890118e-03]
 [ 4.36192131e-05  4.12924528e-05  1.21328849e-05 -1.41517856e-04]
 [ 2.55435880e-04 -5.01705217e-05  2.70671590e-04 -3.30625044e-05]
 [ 2.55573355e-03  3.44488546e-02 -1.24474976e-03 -1.68335989e-01]
 [ 7.42553821e-05  2.20050060e-05 -1.81086012e-04 -1.87575817e-04]
 [-3.97131626e-05 -8.14909508e-05  1.43319921e-04  6.28212147e-05]
 [ 7.56477122e-04 -1.85665587e-04  9.04237095e-05 -3.87537584e-05]
 [-8.72744058e-05  1.58078386e-04 -4.41436168e-05  1.17799646e-04]
 [ 1.13799957e-04 -1.94293185e-04 -1.86773163e-04  2.12361774e-05]
 [ 5.62446512e-05 -2.62243644e-04  3.69959889e-06 -2.77445342e-05]
 [ 5.63380085e-02  4.76108311e-04 -8.04460142e-04 -9.95012699e-04]
 [ 2.81082721e-05  1.30746077e-04 -7.45594298e-05 -3.13454861e-04]
 [ 5.41415007e-04  1.07694939e-02 -5.99709456e-04 -1.43756531e-03]
 [ 3.75917123e-04 -4.11113375e-04  1.35351598e-04  1.90555700e-04]
 [-1.19384658e-03  1.32417694e-01 -1.10406301e-03 -1.19134388e-03]
 [-3.09887546e-04  6.63265237e-05 -2.72931356e-04  8.44433089e-06]
 [ 2.12272465e-01  4.20261025e-02 -5.22390790e-02 -1.52377540e-03]
 [-3.20196268e-05  3.12281045e-05  3.45869776e-05 -4.23169229e-04]
 [-1.43099634e-04  1.19837536e-03 -1.28080440e-03 -1.14033034e-03]
 [ 1.44776240e-01 -5.43400165e-05 -6.00961444e-04 -1.58317317e-03]
 [ 2.48036173e-04  1.32049812e-04 -1.45243102e-05 -1.01766629e-04]
 [ 1.18473336e-01  1.45253289e-04 -6.39284961e-04 -1.39885291e-03]
 [-7.96606473e-04  4.74711618e-04 -7.68766768e-07 -3.41624022e-04]
 [-3.71894785e-05 -4.52272303e-04  1.55396672e-04  1.27645049e-04]
 [ 1.52926296e-01  7.38093853e-02 -7.75227100e-02 -5.65781854e-02]]
stock_model/dense_1/bias:0
(4,)
[ 0.07724713  0.10560384 -0.2542338  -0.27771175]
