stock_cnn_model/conv2d/kernel:0
(3, 3, 1, 9)
[[[[ 0.2420755  -0.25144592  0.18375225  0.0126359   0.08311139
    -0.19456188  0.11069994  0.27506882  0.16046603]]

  [[-0.13757661  0.01987731  0.22821349  0.18514858  0.11760861
     0.09163777  0.23743641 -0.23423329 -0.15047778]]

  [[ 0.15727758 -0.236231    0.24680117  0.14553432 -0.2624667
     0.05177759 -0.03121267 -0.00958212  0.18898267]]]


 [[[-0.12925638  0.00033498 -0.24953128 -0.13914971  0.2552514
     0.0709374  -0.0861141  -0.07893107  0.16705807]]

  [[-0.21984112 -0.14292675  0.12989174  0.03208949  0.12184381
     0.20759788 -0.02925589  0.09841161  0.11475249]]

  [[ 0.00678646  0.22636428 -0.02109507  0.06688081 -0.16397874
     0.01354584 -0.03433967 -0.26560873 -0.13271244]]]


 [[[ 0.1431163  -0.09751924  0.14868163 -0.22344543  0.20710033
    -0.11680957  0.24873282 -0.16441967  0.11757946]]

  [[-0.15187724 -0.17559491  0.14445472  0.15735374  0.09946234
     0.11097244 -0.06809165 -0.08738388  0.06762019]]

  [[ 0.03129064 -0.262995   -0.23344176  0.09108362 -0.26547447
    -0.09795961  0.00041918  0.2764959  -0.1959669 ]]]]
stock_cnn_model/conv2d/bias:0
(9,)
[-0.00183112 -0.00489879 -0.00343244  0.0035712   0.00266607 -0.00283775
  0.00429025 -0.00378331 -0.00199611]
stock_cnn_model/batch_normalization/gamma:0
(9,)
[1.0190161 1.0228627 1.0088655 1.0000855 1.0283874 1.0142673 1.0049126
 1.0286814 1.0239886]
stock_cnn_model/batch_normalization/beta:0
(9,)
[0.02318553 0.02974558 0.01702139 0.01419313 0.02952186 0.01835872
 0.01319384 0.02889231 0.02569393]
stock_cnn_model/dense/kernel:0
(81, 128)
[[-0.00771474  0.04718082 -0.07217512 ... -0.1027016   0.17625877
  -0.03838369]
 [ 0.09626205  0.12629908  0.02327118 ...  0.04764377  0.1933889
  -0.03565821]
 [-0.07414579  0.01280013  0.17587927 ...  0.15378842  0.18406415
  -0.05769235]
 ...
 [-0.04324881  0.12449026  0.15616477 ...  0.03210467 -0.07194093
   0.18298052]
 [ 0.0020542   0.18278222  0.0362939  ...  0.01085721  0.03473916
   0.09529573]
 [-0.05643601  0.07035379  0.11339258 ... -0.04559659  0.13705367
   0.17466372]]
stock_cnn_model/dense/bias:0
(128,)
[ 2.57168505e-02  2.40085628e-02  1.77861620e-02 -2.02180594e-02
 -1.73315220e-02  2.64819642e-03 -1.84157155e-02  2.64871344e-02
 -5.20954560e-03 -1.95862213e-03 -1.89478006e-02  2.19775755e-02
 -7.23104039e-03  7.07622617e-04 -2.19445545e-02 -1.24272099e-02
  1.65020637e-02  2.36681644e-02 -1.92247164e-02 -1.38144447e-02
  2.22528563e-03 -1.69947557e-02  2.04363111e-02  2.64737308e-02
  1.71907451e-02 -1.05459783e-02  2.96595767e-02 -1.42140286e-02
 -1.49171874e-02 -1.07221752e-02  2.38644821e-03  1.27890930e-02
 -1.07362615e-02 -1.79867037e-02  2.98503041e-02 -9.77650750e-03
  2.60723904e-02  2.16477010e-02  2.56663077e-02  1.06782122e-02
 -1.75099131e-02  2.62052938e-02 -1.64862070e-02  2.84932256e-02
  2.85709798e-02 -2.11761072e-02  2.09012218e-02 -2.10844167e-02
  1.14320526e-02 -1.16792684e-02 -1.84103530e-02 -1.86213106e-02
  1.25269433e-02 -1.95673518e-02 -1.90315954e-02  2.49927938e-02
  2.96895821e-02  2.71360334e-02 -5.53885329e-05 -1.83829200e-02
  2.47697383e-02  2.63177250e-02  3.48096690e-03 -2.00437456e-02
 -1.70785394e-02  6.36166800e-03  1.76298488e-02 -2.94567551e-03
  2.38839327e-03  5.37339482e-04 -1.32570397e-02  2.63803005e-02
 -2.04111077e-02 -1.65962279e-02 -1.77197643e-02 -1.50300367e-02
 -8.91720783e-03 -1.30637446e-02 -3.15591693e-04 -1.92896985e-02
  2.76008453e-02  2.26056259e-02 -1.64573081e-02 -1.68571956e-02
 -1.60877109e-02  2.56046001e-02  2.57578455e-02 -1.27434591e-02
  2.41908748e-02  2.53489148e-02 -1.62714198e-02 -1.92440450e-02
 -1.98044647e-02  1.89366494e-03  2.42856611e-02 -1.83063224e-02
  2.45150998e-02  2.68513151e-02 -5.07255411e-03  7.77466048e-04
 -2.18846910e-02 -1.83483772e-02 -1.61694549e-02 -9.85713955e-03
  8.70781296e-05 -1.84038319e-02  2.72407457e-02 -1.80886555e-02
  1.77204628e-02  2.75812689e-02  2.56926194e-02  2.88439505e-02
  1.71337444e-02  2.64472030e-02  2.77523436e-02 -4.00047190e-03
  0.00000000e+00  9.65959951e-03 -1.45086283e-02 -1.34669244e-02
 -1.70237217e-02 -1.47584490e-02 -6.19972125e-03 -1.64481848e-02
  2.25557685e-02 -1.35105336e-02  2.69798283e-02  2.68734731e-02]
stock_cnn_model/dense_1/kernel:0
(128, 4)
[[ 0.04867699  0.21761598 -0.17187232  0.00170667]
 [ 0.00272608  0.16739601 -0.01716723 -0.17612746]
 [-0.1421101   0.08831544 -0.233237   -0.15842323]
 [-0.14657064 -0.16759445  0.1226196  -0.05502231]
 [ 0.04370404 -0.09412161  0.14415191  0.01934228]
 [-0.13370426  0.17930515 -0.02216879 -0.03651167]
 [-0.03630606 -0.10964662  0.19380285 -0.02843678]
 [ 0.15436143  0.04890841 -0.04161496 -0.21362431]
 [ 0.01891137  0.22354312  0.17839313 -0.00349824]
 [ 0.09993815  0.00139571 -0.18365046  0.18211322]
 [-0.11174935 -0.03797853  0.09346415  0.14996234]
 [ 0.15559952 -0.14222907 -0.20708913  0.02955706]
 [-0.13097657  0.08063004 -0.18176307  0.08483477]
 [ 0.21640411 -0.02610435  0.00158509  0.1432483 ]
 [-0.10838526 -0.17069437 -0.22334364  0.17564861]
 [ 0.00078742  0.17665955  0.05554168  0.11660638]
 [ 0.22347015 -0.16414611  0.07740449 -0.23672926]
 [ 0.07531425  0.20164216 -0.22635445  0.08088949]
 [-0.1639601  -0.04578418 -0.08360978  0.01325282]
 [ 0.05645527 -0.01213691 -0.16900225  0.15855005]
 [ 0.18823612 -0.13347276  0.17907287 -0.04412074]
 [-0.00041124 -0.18476549 -0.16837499  0.19728026]
 [ 0.18361075  0.03725468  0.11025576  0.09293839]
 [ 0.08819379  0.13106447 -0.20581867 -0.0303368 ]
 [ 0.20576988 -0.04112804 -0.06997688  0.10017601]
 [-0.14186114  0.06025789  0.08566203 -0.05785024]
 [ 0.06339536  0.1323587   0.00875877 -0.21447599]
 [-0.1039504   0.17200863  0.05993802 -0.0089724 ]
 [-0.14272492 -0.15379383 -0.08135926  0.06427231]
 [ 0.050247    0.11712667  0.16669998  0.15346122]
 [-0.16716771 -0.02170277 -0.16260219 -0.06713486]
 [-0.03010385  0.22792687 -0.12962079  0.04441031]
 [ 0.19552694 -0.04432822  0.03136465  0.18168783]
 [ 0.04324583 -0.07698012  0.15206233  0.12333643]
 [ 0.10284582  0.09273434 -0.08928474  0.02214729]
 [ 0.1099477   0.04292009  0.00146015  0.15219553]
 [ 0.08071438  0.2251963  -0.12169608 -0.13790274]
 [-0.05463963  0.11241494 -0.18530016 -0.05131578]
 [ 0.1793002   0.11569449  0.12277392 -0.20287034]
 [ 0.22289033 -0.16336955 -0.01434307 -0.02924522]
 [-0.14640826  0.02814829  0.15880051  0.13763587]
 [ 0.0305893   0.11135446 -0.06710409 -0.10218811]
 [-0.06898346 -0.07848089 -0.13017114  0.05157948]
 [ 0.01136763  0.01649241 -0.04460596 -0.242406  ]
 [ 0.1325547   0.09460394 -0.21081634  0.06098514]
 [-0.05781565 -0.00839578  0.11697153  0.1355439 ]
 [ 0.1404991   0.04796753 -0.07083099  0.1249543 ]
 [-0.09298207 -0.09079222  0.06512494  0.09983382]
 [-0.12953678  0.09130974 -0.14597295 -0.12733123]
 [-0.00528873 -0.05223493 -0.08534689  0.15907565]
 [-0.11874645  0.20046654  0.1434722   0.13749209]
 [-0.09405144 -0.10530099 -0.23064345  0.02621526]
 [ 0.20664094 -0.15137945  0.08180209 -0.06025422]
 [-0.19039942  0.00576652 -0.13777857 -0.02912421]
 [-0.01171661 -0.10162827  0.02825407  0.06588349]
 [ 0.19537374  0.02619997 -0.0010735  -0.08549841]
 [ 0.21942851  0.21434791 -0.17793529 -0.07393275]
 [ 0.0659394  -0.0122495  -0.12575741 -0.01911146]
 [-0.02161857  0.14823225  0.1659964   0.00385083]
 [ 0.03719952  0.11369555  0.04948563  0.18329069]
 [ 0.07077253  0.21478245 -0.03396761 -0.16580287]
 [ 0.16121966  0.04312763  0.08378159 -0.22491392]
 [ 0.11111804  0.0545928  -0.05796941  0.13804393]
 [-0.07206338 -0.09211937  0.13556004  0.15139067]
 [-0.10109495 -0.21249275  0.03778145 -0.00841181]
 [-0.04132896  0.06772285 -0.13666993  0.02054376]
 [ 0.19319692 -0.12193423 -0.1249817   0.07761272]
 [-0.13400215  0.20421562 -0.08192356  0.0111981 ]
 [ 0.1538061  -0.18407708  0.12407544  0.05446717]
 [ 0.05919941 -0.14574158  0.12288281 -0.15409274]
 [-0.15342948 -0.02823323 -0.21761401  0.08207736]
 [ 0.13439281  0.20473158 -0.04315329 -0.04571856]
 [-0.09035418  0.04465722 -0.05760025  0.18545708]
 [ 0.04993194  0.1709533   0.10951622  0.12862831]
 [-0.09153356 -0.07720789 -0.14966276 -0.03920066]
 [-0.09285731  0.06378583 -0.07069859  0.17463022]
 [ 0.16788943 -0.02130968  0.16433091  0.05041486]
 [ 0.14874405 -0.0572551   0.14829807  0.14582923]
 [-0.12602143  0.12462015 -0.16509946  0.03963424]
 [-0.1861833  -0.10524599 -0.04665981  0.1875106 ]
 [ 0.21471386  0.20095128  0.05742542 -0.00860216]
 [-0.10104986  0.02721105 -0.12846442 -0.15478402]
 [ 0.06295709  0.0394909   0.11306131  0.08791678]
 [-0.12971644  0.15982157  0.1810962   0.02681712]
 [-0.1378514  -0.16565716  0.15656106  0.07327084]
 [ 0.2330093   0.10615222  0.15900923  0.02684085]
 [ 0.11511178  0.17286196 -0.06655672  0.136999  ]
 [-0.04433289 -0.15444563  0.16045928 -0.07173938]
 [-0.07772145  0.00802827 -0.19989061 -0.08736333]
 [ 0.21133046  0.1136799   0.06429157  0.06236168]
 [ 0.12065788 -0.02831319  0.1792379   0.15686561]
 [-0.18071544  0.00381713  0.06983647  0.1049689 ]
 [-0.13524026  0.05314871  0.0356921  -0.06957118]
 [ 0.2291124  -0.14182581  0.05921551  0.02507957]
 [ 0.0953343  -0.04634603 -0.19768876 -0.01917823]
 [-0.04877548 -0.14764209 -0.09890746  0.10166798]
 [ 0.07482785 -0.12641847 -0.21059836 -0.08813228]
 [ 0.22165088  0.23240204  0.08711807  0.02397859]
 [-0.0190462  -0.15984933 -0.08334186 -0.10797627]
 [-0.1560368   0.21359736  0.00382439 -0.16837873]
 [-0.08613892 -0.01802348 -0.05838604  0.1678875 ]
 [-0.19360545 -0.19277847 -0.16161638  0.12210429]
 [ 0.13144277 -0.00227979  0.05317638  0.18756546]
 [ 0.0338262  -0.06472985 -0.15548342  0.06015221]
 [ 0.19149745 -0.19020616  0.09053552  0.02838188]
 [ 0.00838825  0.00271748 -0.13130315  0.1882175 ]
 [ 0.07749092  0.10227884 -0.0015049   0.04335428]
 [-0.02892826  0.09295391  0.14668421  0.17701124]
 [ 0.20290686 -0.14099139 -0.1296791   0.01207054]
 [ 0.12309341  0.20787272  0.00171667 -0.16393813]
 [ 0.13299331  0.10486631 -0.22664666 -0.01175459]
 [ 0.01523483  0.07941233 -0.12829861 -0.16218415]
 [-0.01489489  0.06990052 -0.00236417 -0.08154119]
 [ 0.22118297  0.1166841  -0.100628    0.09903472]
 [ 0.13848749  0.17093255 -0.22050779  0.02735547]
 [ 0.11691245 -0.1373144  -0.06194326  0.11018567]
 [ 0.01767811 -0.11745634  0.17688754  0.04273084]
 [ 0.22763261 -0.03336315 -0.01837367  0.110118  ]
 [-0.20314986  0.07455432 -0.10325006  0.19434099]
 [-0.1576128  -0.04854084  0.07778986  0.10981201]
 [-0.152915   -0.17204253 -0.22373381 -0.00596151]
 [ 0.10206044 -0.15884331  0.0118832   0.06389318]
 [ 0.09568714 -0.1708331  -0.04434734  0.05128387]
 [-0.08537249 -0.02295452  0.08430099 -0.10018422]
 [ 0.19132103 -0.14183141 -0.12387218 -0.18651924]
 [-0.03195497  0.02862393 -0.15726173  0.06957001]
 [ 0.17341155 -0.01952997 -0.19704357 -0.23330815]
 [ 0.03415238 -0.0141874  -0.05999801 -0.1336955 ]]
stock_cnn_model/dense_1/bias:0
(4,)
[ 0.02351842  0.01960275 -0.02555118 -0.02501729]
