stock_model/dense/kernel:0
(15, 128)
[[-0.1978424  -0.5824295   0.16599247 ... -0.5302321   0.15004799
   0.4156529 ]
 [ 0.37010583  0.3922442   0.00741146 ...  0.18749431 -0.16900703
   0.06789795]
 [ 0.16808225  0.07635497 -0.03876586 ... -0.2743629   0.29255804
   0.1306714 ]
 ...
 [ 0.10371825  0.02479116  0.1273223  ...  0.10772192 -0.03987488
  -0.27371696]
 [ 0.03396102 -0.14091991 -0.05317768 ...  0.2560821  -0.00908006
  -0.2071469 ]
 [-0.5063069  -0.18749745  0.09097081 ... -0.29881933 -0.25145823
  -0.06208554]]
stock_model/dense/bias:0
(128,)
[ 0.5050633   0.3229777  -0.00647596  0.07021184  0.30921352  0.24474317
  0.29195976  0.24841821  0.29989442 -0.01549347  0.21320032  0.34093344
 -0.0053324   0.24387616  0.25392687  0.03818129 -0.01672373  0.03826862
  0.49892652  0.25374284 -0.01479451 -0.01885806 -0.00842197  0.28889167
  0.05993044 -0.00852134  0.4130305   0.35377505  0.19653091 -0.0157734
  0.2659363   0.06264269  0.36734918  0.20079611 -0.01782082 -0.0182472
  0.19821008  0.40352103 -0.01038572  0.26013854  0.01985657  0.27562156
  0.1651739   0.35008144 -0.01204539 -0.01075073 -0.01679695  0.37443328
  0.41508666 -0.0143148  -0.00985122 -0.0101793   0.04762378  0.26445472
  0.25531998  0.394175    0.21123886  0.3215809   0.1907525  -0.01465247
  0.26856637  0.31797007 -0.02307671 -0.01676159 -0.01599878  0.01459145
  0.27475578 -0.01853556  0.2959933   0.04649208 -0.01126829  0.22673957
 -0.00767059  0.53772587  0.2544899  -0.01606329  0.10036059 -0.0180816
 -0.01434024  0.30646706 -0.01771523 -0.00587324  0.31132346 -0.01847968
  0.34756917 -0.01033561  0.28783014 -0.01906559  0.24733557 -0.01163378
 -0.01518442  0.19905397  0.00293252  0.00592712 -0.02034496  0.00471734
 -0.01745405  0.29176125  0.01208659 -0.01890004 -0.01747764 -0.01579572
 -0.01692253  0.2823415  -0.01273712  0.28002352  0.32173303 -0.01818458
  0.0007108  -0.01404849 -0.01978302 -0.01890829 -0.01756154  0.2498669
 -0.00704415  0.28107914  0.02391672  0.0791358  -0.01419512  0.26653478
 -0.01089586  0.22014658  0.14855787  0.51814944  0.22636142  0.24289115
  0.00322867  0.3193455 ]
stock_model/dense_1/kernel:0
(128, 4)
[[ 7.97533393e-02  1.27963766e-01 -1.34602532e-01 -1.25692740e-01]
 [ 8.14987123e-02  1.66344270e-01 -8.81656855e-02 -7.78188780e-02]
 [ 2.74857017e-03 -2.23074784e-03 -4.25603866e-05 -1.33382302e-04]
 [ 7.33695179e-02 -3.38455737e-02 -1.31828785e-02 -2.20980030e-02]
 [ 1.05662830e-01  2.73032188e-02 -7.55517036e-02 -8.28511789e-02]
 [ 2.03918610e-02  1.18220754e-01 -6.83249161e-02 -5.80027029e-02]
 [ 1.64391607e-01  1.22068450e-01 -7.40496442e-02 -7.87652209e-02]
 [ 1.28921926e-01  4.27071052e-03 -5.97943775e-02 -6.97093457e-02]
 [ 1.40763268e-01  6.36946484e-02 -7.49306902e-02 -8.06119442e-02]
 [-2.29108249e-04 -7.53478613e-04 -1.61714433e-05  8.03452258e-06]
 [ 1.62804872e-01  2.78990660e-02 -5.15489951e-02 -5.85559979e-02]
 [ 1.55471534e-01  1.69509679e-01 -8.98070186e-02 -8.82878155e-02]
 [ 1.63095016e-02 -1.46286422e-02 -1.13622029e-03 -9.02660133e-04]
 [ 1.36469662e-01  1.58799648e-01 -6.54200315e-02 -6.31913096e-02]
 [ 1.25679001e-01  1.48484349e-01 -6.74010515e-02 -6.64463043e-02]
 [ 9.98246968e-02 -8.47906098e-02 -1.04759785e-03 -1.52651183e-02]
 [-5.58284111e-04  1.30233436e-03 -1.39965978e-05 -1.46708289e-05]
 [-6.13431074e-02  7.67596588e-02 -1.30795641e-02 -8.91470059e-04]
 [ 1.50504053e-01  1.62543893e-01 -1.30277380e-01 -1.28831565e-01]
 [ 1.01260111e-01  5.99576496e-02 -6.70111775e-02 -6.83340207e-02]
 [ 4.69229045e-32  9.53257916e-32 -1.09570137e-23  4.76003516e-30]
 [-8.94494064e-04  1.94400098e-04  4.16256371e-05 -1.92652351e-05]
 [ 1.11193797e-02 -1.01238610e-02 -4.22880868e-04 -4.32917004e-04]
 [ 1.60888165e-01  7.92456940e-02 -7.22898617e-02 -7.84596279e-02]
 [-6.65102601e-02  9.71684679e-02 -2.28184126e-02 -5.84708853e-03]
 [ 9.64817964e-03 -9.04358830e-03 -2.81030778e-04 -2.88273528e-04]
 [ 1.68504819e-01  1.73330382e-01 -1.05081871e-01 -1.04589649e-01]
 [ 9.54561532e-02  1.84802905e-01 -9.66250747e-02 -9.00778025e-02]
 [ 1.27555683e-01  2.17386149e-03 -4.78165112e-02 -5.54096252e-02]
 [-2.13145293e-04  3.90540663e-04 -8.48106993e-06 -4.39570158e-06]
 [ 9.63280872e-02  1.27156943e-01 -7.12784007e-02 -6.77885786e-02]
 [ 9.54735056e-02 -6.08135127e-02 -8.10355507e-03 -2.08898187e-02]
 [ 1.28101885e-01  1.69588223e-01 -9.88114253e-02 -9.52092186e-02]
 [ 1.50188908e-01  1.74817108e-02 -4.79636341e-02 -5.59996739e-02]
 [-2.55684967e-28  9.39153312e-31  2.42934637e-29  2.05028957e-18]
 [-8.76456323e-22  1.83694253e-18  3.56550345e-15 -4.96312053e-32]
 [ 7.50067383e-02  3.44107337e-02 -4.49059866e-02 -5.04104123e-02]
 [ 1.28179520e-01  1.65596783e-01 -9.94987860e-02 -1.06797472e-01]
 [ 1.66890188e-03 -1.80206867e-03 -1.39437925e-05 -5.43017522e-05]
 [ 1.41478539e-01  7.76953250e-02 -6.75362349e-02 -7.18648583e-02]
 [ 4.15172838e-02 -3.20081823e-02  1.66236539e-04 -9.27035511e-03]
 [ 1.42407224e-01  1.09202862e-01 -7.04098567e-02 -7.37068877e-02]
 [ 1.44590437e-01 -1.30044215e-03 -3.74791659e-02 -4.52833995e-02]
 [ 1.11406043e-01  1.25298962e-01 -9.54161137e-02 -9.16226134e-02]
 [-1.32537179e-03  3.79060424e-04 -2.12075447e-05 -2.27024993e-05]
 [-6.71681995e-03  7.02684140e-03 -1.39736803e-04 -2.83345755e-04]
 [ 5.74675738e-04 -3.42884450e-04 -1.17701529e-05 -6.44385591e-06]
 [ 1.39146224e-01  7.43747279e-02 -8.58080089e-02 -9.78237689e-02]
 [ 1.44530311e-01  1.00109167e-01 -1.08759455e-01 -1.11736402e-01]
 [ 7.18152775e-27 -5.26146687e-32  1.26227860e-32 -1.13830612e-19]
 [-5.89087093e-03  6.59364183e-03 -1.35419759e-04 -1.46838182e-04]
 [-2.29648128e-03  2.59314268e-03 -8.74056859e-05 -3.35069126e-05]
 [-7.24885315e-02  9.33604911e-02 -1.73306596e-02 -2.75564496e-03]
 [ 4.11198325e-02  1.57655343e-01 -7.47226700e-02 -6.61825687e-02]
 [ 1.54234082e-01  3.63403261e-02 -6.44282624e-02 -7.12343380e-02]
 [ 1.04470320e-01  1.90291643e-01 -1.06699482e-01 -9.78618339e-02]
 [ 1.67032525e-01  4.58663926e-02 -5.13965003e-02 -5.80036975e-02]
 [ 1.38287485e-01  9.41861570e-02 -8.37647691e-02 -8.65484178e-02]
 [-6.54717721e-03  1.31760165e-01 -5.21781072e-02 -4.37481254e-02]
 [ 1.00153247e-30 -2.61309037e-14 -3.48126192e-29 -4.25821089e-31]
 [ 1.18413106e-01  8.89893025e-02 -7.01644644e-02 -7.35292137e-02]
 [ 7.86357149e-02  1.56787902e-01 -8.90114456e-02 -8.47305655e-02]
 [ 1.77314767e-04 -1.87963946e-04 -4.27967598e-06 -1.07742962e-05]
 [ 3.30688660e-31  7.96593495e-31  1.33425031e-12 -2.06275561e-31]
 [ 1.95157547e-26 -1.04596604e-32  1.31071830e-13  2.45968314e-32]
 [ 3.81191857e-02 -3.26837935e-02  1.84041786e-03 -7.23532308e-03]
 [ 1.66906506e-01  1.31589800e-01 -6.99118972e-02 -7.06560463e-02]
 [-1.90801322e-04  6.76256546e-04 -1.76410208e-06 -4.09374070e-06]
 [ 3.76139060e-02  1.30191639e-01 -8.08056146e-02 -7.42751583e-02]
 [-5.62850609e-02  7.32843652e-02 -1.47705143e-02 -1.92038494e-03]
 [-1.67547737e-03  1.74174120e-03 -1.39451964e-04 -8.86523339e-05]
 [ 1.14822410e-01  1.53992716e-02 -5.86797185e-02 -6.33439273e-02]
 [-2.54927855e-03  2.63940566e-03 -2.31574260e-04 -2.39706860e-04]
 [ 9.05600339e-02  9.66714993e-02 -1.45236433e-01 -1.45558268e-01]
 [ 1.54781148e-01  5.47099560e-02 -6.01578243e-02 -6.94063157e-02]
 [ 2.97010329e-16 -6.97831163e-32  2.40485602e-32  9.02067838e-27]
 [ 5.33091128e-02  3.95313138e-03 -2.15596035e-02 -2.43404619e-02]
 [-6.91292065e-34  1.17005828e-31  1.74376135e-29  2.77798186e-18]
 [-1.03197666e-03  1.12081831e-03 -1.86499328e-05 -5.17582739e-05]
 [ 1.73976809e-01  1.22442119e-01 -8.02929774e-02 -8.21830779e-02]
 [ 1.94021504e-06  2.61169589e-07 -3.89076220e-08 -5.75025787e-08]
 [ 9.17470641e-03 -8.51307251e-03 -4.10487119e-04 -4.03809128e-04]
 [ 1.50775269e-01  1.04812264e-01 -8.01229328e-02 -8.23106915e-02]
 [-1.24629078e-29  2.10017888e-31  6.38982390e-32  1.24498503e-14]
 [ 1.31292567e-01  1.50230035e-01 -9.24011767e-02 -9.07476321e-02]
 [-3.39781470e-03  3.32855573e-03 -1.03142207e-04 -1.49572923e-04]
 [ 6.28345385e-02  1.71029150e-01 -7.84056559e-02 -6.98508397e-02]
 [ 3.28912662e-04 -5.90857817e-04 -1.21546273e-05 -2.18868918e-05]
 [ 1.65102080e-01  6.50000274e-02 -5.94342686e-02 -6.50341958e-02]
 [ 4.79926169e-03 -4.64046421e-03 -1.03649210e-04 -9.76450610e-05]
 [ 1.65736966e-03 -1.74164644e-03 -1.00015575e-04 -1.02183621e-04]
 [ 1.15509175e-01  1.96603499e-02 -4.88921031e-02 -5.41791916e-02]
 [ 1.54532408e-02 -1.33618433e-02 -3.71947302e-04 -2.46760156e-03]
 [-3.77133638e-02  4.12423424e-02 -4.42966493e-03 -1.12331496e-03]
 [ 4.19298321e-33  2.38079983e-32  1.98435929e-24  1.76841018e-12]
 [-2.74769031e-02  3.01080290e-02 -2.99113337e-03  3.33255739e-04]
 [-9.72056027e-14  4.30793884e-25  2.13929580e-31 -8.05838288e-32]
 [ 1.21195346e-01  1.40442282e-01 -7.75551274e-02 -7.69959763e-02]
 [ 5.40269203e-02 -4.77331728e-02  2.12025177e-03 -7.42413336e-03]
 [-3.67224449e-04 -6.91024063e-04 -6.08994378e-06  1.86751986e-05]
 [-6.80725700e-21 -1.75283981e-30 -8.10062394e-23  2.93947614e-32]
 [-1.33116168e-30  1.36285557e-31 -4.32104482e-31 -3.10511476e-32]
 [ 5.49541459e-22  6.24662565e-20 -6.78167753e-31  4.46765509e-13]
 [ 1.42713591e-01  4.30273600e-02 -6.82845339e-02 -7.57644027e-02]
 [-4.55472711e-03  4.74931346e-03 -1.14107352e-04 -1.19390279e-04]
 [ 1.00710467e-01  1.29790409e-02 -6.21848367e-02 -7.69932866e-02]
 [ 6.51372820e-02  1.26603067e-01 -8.75045955e-02 -8.35604817e-02]
 [-9.71809392e-33 -8.32343687e-32  3.64316309e-31  4.86508660e-21]
 [ 2.71082837e-02 -2.77650580e-02  2.15249392e-03 -5.45077492e-04]
 [ 1.27900004e-31  1.51071034e-24  5.32497361e-29 -3.76831064e-29]
 [-6.95291210e-23 -1.62499587e-31  2.12968684e-31 -1.32437659e-31]
 [-8.61040938e-26  1.78427582e-32  5.69575503e-20 -2.04780159e-28]
 [ 2.41905355e-21  1.54833428e-26  3.34948255e-19  1.29186216e-25]
 [ 1.37454540e-01  7.77896345e-02 -6.36974499e-02 -6.83943108e-02]
 [-6.48544775e-03  5.91297029e-03 -2.57662032e-04  7.73403095e-04]
 [ 1.03972137e-01  1.22032039e-01 -7.61613995e-02 -7.44364709e-02]
 [ 7.04145655e-02 -6.21376634e-02  5.00258640e-04 -1.03884013e-02]
 [-6.35150746e-02  1.05836347e-01 -2.56984942e-02 -9.80425812e-03]
 [-1.43540266e-03  1.29357656e-03 -2.29160432e-05 -2.39150177e-05]
 [ 1.77071080e-01  8.08577836e-02 -6.53721690e-02 -6.88051060e-02]
 [-3.06662987e-03  3.06417095e-03 -1.76425921e-04 -7.33772322e-05]
 [ 9.53592956e-02  1.40187293e-02 -5.46215475e-02 -5.87807596e-02]
 [ 1.25896454e-01 -6.74761273e-03 -3.20185311e-02 -4.09888141e-02]
 [ 1.67221621e-01  1.51398793e-01 -1.21132798e-01 -1.31666318e-01]
 [ 1.82864130e-01  5.88874817e-02 -5.67669235e-02 -6.35448769e-02]
 [ 4.41854484e-02  1.83401078e-01 -6.77764714e-02 -5.71892597e-02]
 [ 2.47214921e-02 -2.06790417e-02 -1.18996296e-03 -2.35085585e-03]
 [ 1.61927789e-01  9.59045365e-02 -8.04628506e-02 -8.47701877e-02]]
stock_model/dense_1/bias:0
(4,)
[ 0.12669802  0.13522926 -0.2380031  -0.24199045]
